<?xml version="1.0"?>
<opencv_storage>
<!-- Automatically converted from /home/rmb-lw/git/opencv-haar-classifier-training/haarcascade_3/, window size = 71x18 -->
<haarcascade type_id="opencv-haar-classifier">
  <size>
    71 18</size>
  <stages>
    <_>
      <!-- stage 0 -->
      <trees>
        <_>
          <!-- tree 0 -->
          <_>
            <!-- root node -->
            <feature>
              <rects>
                <_>
                  35 8 2 3 -1.</_>
                <_>
                  35 9 2 1 3.</_></rects>
              <tilted>0</tilted></feature>
            <threshold>-2.8596140909940004e-03</threshold>
            <left_val>9.7504431009292603e-01</left_val>
            <right_val>-9.4029319286346436e-01</right_val></_></_>
        <_>
          <!-- tree 1 -->
          <_>
            <!-- root node -->
            <feature>
              <rects>
                <_>
                  15 9 4 4 -1.</_>
                <_>
                  15 9 2 2 2.</_>
                <_>
                  17 11 2 2 2.</_></rects>
              <tilted>0</tilted></feature>
            <threshold>2.2247650194913149e-03</threshold>
            <left_val>-9.6140468120574951e-01</left_val>
            <right_val>9.3970388174057007e-01</right_val></_></_></trees>
      <stage_threshold>-5.8931112289428711e-04</stage_threshold>
      <parent>-1</parent>
      <next>-1</next></_>
    <_>
      <!-- stage 1 -->
      <trees>
        <_>
          <!-- tree 0 -->
          <_>
            <!-- root node -->
            <feature>
              <rects>
                <_>
                  52 7 1 6 -1.</_>
                <_>
                  52 9 1 2 3.</_></rects>
              <tilted>0</tilted></feature>
            <threshold>-2.8246659785509109e-03</threshold>
            <left_val>8.9771491289138794e-01</left_val>
            <right_val>-9.7522491216659546e-01</right_val></_></_>
        <_>
          <!-- tree 1 -->
          <_>
            <!-- root node -->
            <feature>
              <rects>
                <_>
                  28 5 15 2 -1.</_>
                <_>
                  33 5 5 2 3.</_></rects>
              <tilted>0</tilted></feature>
            <threshold>1.2122719548642635e-02</threshold>
            <left_val>-9.9075251817703247e-01</left_val>
            <right_val>8.5868197679519653e-01</right_val></_></_></trees>
      <stage_threshold>-1.1654289811849594e-01</stage_threshold>
      <parent>0</parent>
      <next>-1</next></_>
    <_>
      <!-- stage 2 -->
      <trees>
        <_>
          <!-- tree 0 -->
          <_>
            <!-- root node -->
            <feature>
              <rects>
                <_>
                  8 5 3 5 -1.</_>
                <_>
                  9 5 1 5 3.</_></rects>
              <tilted>0</tilted></feature>
            <threshold>2.0823380909860134e-03</threshold>
            <left_val>-9.4204300642013550e-01</left_val>
            <right_val>9.6043771505355835e-01</right_val></_></_>
        <_>
          <!-- tree 1 -->
          <_>
            <!-- root node -->
            <feature>
              <rects>
                <_>
                  47 5 12 4 -1.</_>
                <_>
                  51 5 4 4 3.</_></rects>
              <tilted>0</tilted></feature>
            <threshold>1.4497010037302971e-02</threshold>
            <left_val>-9.8078817129135132e-01</left_val>
            <right_val>8.6264801025390625e-01</right_val></_></_></trees>
      <stage_threshold>-7.9395063221454620e-02</stage_threshold>
      <parent>1</parent>
      <next>-1</next></_></stages></haarcascade>
</opencv_storage>
