<?xml version="1.0"?>
<opencv_storage>
<cascade>
  <stageType>BOOST</stageType>
  <featureType>HAAR</featureType>
  <height>18</height>
  <width>71</width>
  <stageParams>
    <boostType>GAB</boostType>
    <minHitRate>9.9000000953674316e-01</minHitRate>
    <maxFalseAlarm>5.0000000000000000e-01</maxFalseAlarm>
    <weightTrimRate>9.4999999999999996e-01</weightTrimRate>
    <maxDepth>1</maxDepth>
    <maxWeakCount>100</maxWeakCount></stageParams>
  <featureParams>
    <maxCatCount>0</maxCatCount>
    <featSize>1</featSize>
    <mode>ALL</mode></featureParams>
  <stageNum>5</stageNum>
  <stages>
    <!-- stage 0 -->
    <_>
      <maxWeakCount>2</maxWeakCount>
      <stageThreshold>-4.6384543180465698e-02</stageThreshold>
      <weakClassifiers>
        <_>
          <internalNodes>
            0 -1 7 -3.2801942434161901e-03</internalNodes>
          <leafValues>
            9.7647953033447266e-01 -9.5324802398681641e-01</leafValues></_>
        <_>
          <internalNodes>
            0 -1 9 -2.4673407897353172e-03</internalNodes>
          <leafValues>
            9.0686351060867310e-01 -9.9226754903793335e-01</leafValues></_></weakClassifiers></_>
    <!-- stage 1 -->
    <_>
      <maxWeakCount>2</maxWeakCount>
      <stageThreshold>-7.3911949992179871e-02</stageThreshold>
      <weakClassifiers>
        <_>
          <internalNodes>
            0 -1 5 -1.9065660890191793e-03</internalNodes>
          <leafValues>
            9.1932529211044312e-01 -9.5821797847747803e-01</leafValues></_>
        <_>
          <internalNodes>
            0 -1 2 2.8910236433148384e-03</internalNodes>
          <leafValues>
            -9.6320879459381104e-01 8.8430601358413696e-01</leafValues></_></weakClassifiers></_>
    <!-- stage 2 -->
    <_>
      <maxWeakCount>2</maxWeakCount>
      <stageThreshold>-1.0686194151639938e-01</stageThreshold>
      <weakClassifiers>
        <_>
          <internalNodes>
            0 -1 0 -2.6683539152145386e-02</internalNodes>
          <leafValues>
            8.7558430433273315e-01 -9.5304924249649048e-01</leafValues></_>
        <_>
          <internalNodes>
            0 -1 3 1.6539942473173141e-02</internalNodes>
          <leafValues>
            -9.6986854076385498e-01 8.4618729352951050e-01</leafValues></_></weakClassifiers></_>
    <!-- stage 3 -->
    <_>
      <maxWeakCount>2</maxWeakCount>
      <stageThreshold>-8.3008110523223877e-02</stageThreshold>
      <weakClassifiers>
        <_>
          <internalNodes>
            0 -1 8 1.9297853112220764e-02</internalNodes>
          <leafValues>
            -9.7619676589965820e-01 8.1911611557006836e-01</leafValues></_>
        <_>
          <internalNodes>
            0 -1 4 -1.7894912511110306e-02</internalNodes>
          <leafValues>
            9.4150382280349731e-01 -9.0212422609329224e-01</leafValues></_></weakClassifiers></_>
    <!-- stage 4 -->
    <_>
      <maxWeakCount>2</maxWeakCount>
      <stageThreshold>-1.2536941096186638e-02</stageThreshold>
      <weakClassifiers>
        <_>
          <internalNodes>
            0 -1 6 1.3562260195612907e-02</internalNodes>
          <leafValues>
            -9.6981525421142578e-01 8.4949249029159546e-01</leafValues></_>
        <_>
          <internalNodes>
            0 -1 1 9.2822805047035217e-02</internalNodes>
          <leafValues>
            -8.6202943325042725e-01 9.5771491527557373e-01</leafValues></_></weakClassifiers></_></stages>
  <features>
    <_>
      <rects>
        <_>
          4 4 62 4 -1.</_>
        <_>
          4 5 62 2 2.</_></rects>
      <tilted>0</tilted></_>
    <_>
      <rects>
        <_>
          4 9 37 9 -1.</_>
        <_>
          4 12 37 3 3.</_></rects>
      <tilted>0</tilted></_>
    <_>
      <rects>
        <_>
          8 5 3 7 -1.</_>
        <_>
          9 5 1 7 3.</_></rects>
      <tilted>0</tilted></_>
    <_>
      <rects>
        <_>
          11 5 15 3 -1.</_>
        <_>
          16 5 5 3 3.</_></rects>
      <tilted>0</tilted></_>
    <_>
      <rects>
        <_>
          15 8 6 3 -1.</_>
        <_>
          17 9 2 1 9.</_></rects>
      <tilted>0</tilted></_>
    <_>
      <rects>
        <_>
          15 9 4 1 -1.</_>
        <_>
          17 9 2 1 2.</_></rects>
      <tilted>0</tilted></_>
    <_>
      <rects>
        <_>
          28 5 15 2 -1.</_>
        <_>
          33 5 5 2 3.</_></rects>
      <tilted>0</tilted></_>
    <_>
      <rects>
        <_>
          35 8 2 3 -1.</_>
        <_>
          35 9 2 1 3.</_></rects>
      <tilted>0</tilted></_>
    <_>
      <rects>
        <_>
          47 5 12 8 -1.</_>
        <_>
          50 5 6 8 2.</_></rects>
      <tilted>0</tilted></_>
    <_>
      <rects>
        <_>
          52 7 1 6 -1.</_>
        <_>
          52 9 1 2 3.</_></rects>
      <tilted>0</tilted></_></features></cascade>
</opencv_storage>
